var svm_model = {"N":431,"D":150,"b":-0.1655031300667496,"kernelType":"linear","w":[-0.2280078086861177,-0.1462780264898976,0.009870244850100053,-0.22273829660459196,0.4596897159162051,0.23018227318600387,0.07048730010485962,0.359053852928947,0.13458619839023975,-0.034388435440738774,0.012562742591990108,0.21674181407705007,0.1631328002217141,0.2222455986331695,-0.09709809519171957,0.11957106512104387,0.04349916823359669,-0.09967664983953149,0.10338801168172627,0.16678849507749535,0.10484995418347448,-0.22253257459483292,0.022623775427799822,0.01206315404431117,-0.09718029218248775,0.12011238946629986,-0.1522352142669743,0.23698963788090954,0.06111376552690044,0.07238026235463306,0.09300507270953648,-0.0008006315472997698,-0.037285580718329214,0.0046490320200574375,-0.051799056283924075,0.07486435819930468,-0.008696823888652882,0.2156566873358305,-0.037758153484543665,-0.002994823190604625,-0.02132041298639594,0.10080204453704815,-0.026054235701281812,-0.06172088229422494,-0.05655406195974698,-0.014965218662966316,0.002863847309647407,0.022336327759922222,-0.013070081431162738,0.00044490889000809103,-0.0218310330161133,0.016700510576132158,-0.03741077749294402,0.08765958503941794,-0.03682563102026698,0.045506032579501955,0.07482659170662906,0.04776441269125109,0.00466108448975797,-0.01657684003169772,0.007743921371336533,0.026260175199500753,0.03136269879140742,0.07710635042858005,0.00529253063592369,0.015416428729170735,0.02472562739404362,0.0002937132206685102,0.015226768930603827,0.005786497392121463,-0.027421175747529995,-0.01049646878115003,-0.01792589277227109,-0.0071914909437474014,-0.019820444847354065,0.0021039250869641073,-0.01824077382566223,0.000489327379814078,-0.02566143855031065,0.002639865849268383,0.014832171168516867,0.004733242138568235,-0.010812698003521337,-0.008182998000993261,0.004270216326932396,-0.002011897163188701,-0.004110056660926942,0.017452392947139406,-0.002770961813703031,0.032364978206612716,-0.013640486849549702,0.0023269164137550897,-0.016508895220321073,0.010155212844938262,-0.003243442062779428,-0.020847490711521133,0.006273382297781597,-0.004320972270363063,-0.012278175430168107,-0.020494526692807425,-0.01678088166842471,0.00651316589253804,0.0028320758210286043,-0.010239026727229683,0.024822347023683806,0.010650063308485317,-0.008403301386001472,0.005512515302512295,-0.005347555409053935,-0.005989230896038162,0.013191197076400232,0.001854490337345923,0.012357018724201878,0.0015825731210015132,0.0036597744508323226,0.005016279358811495,0.0004261887528392822,0.011089585094827558,0.00648674143285521,0.009122517774916461,-0.0052656707436713615,0.005244069507531369,0.0018725468893692376,0.00021732778502263808,-0.005272642797275744,-0.0027702406947688087,-0.0005919976591826277,0.002540289081361472,-0.00010011451291704735,-0.003973792462859771,-0.0004277451523971096,-0.0027896716616812216,0.0009881088359666983,0.007744036070960591,-0.008948663416238494,-0.004121549299345678,0.002274649485721515,-0.003978469521932767,0.00012289533938620448,0.00006420314000116236,0.002102713731517671,0.00005862770785810721,-0.0014536967736723284,0.0012786166421650414,0.005546284876316598,0.00011606449315611682,0.0028000025389269797,-0.0026730709002049913,0.0007845884618431739,0.0024147723531306436]};